{"levels":[{"inputs":[0.552989369741601,0.1740320557785895,0,0,0],"outputs":[0,1,1,0,0,1],"biases":[0.10067709228246396,-0.18189149874637195,-0.24415998565601787,0.22975627868993506,0.2760739965117568,0.05597565256088731],"weights":[[-0.26837380516100556,0.3037591991140104,-0.3268502366080386,-0.11375688248003807,0.0554250190154909,0.15068588097717886],[-0.33058882083585117,0.1370460368702821,-0.2598922757856025,0.06710913425757879,-0.42112152400101166,-0.01980473204785254],[0.07993348471666707,0.06337960217675712,0.11660009462724769,0.36642328275706676,-0.019633057343953826,0.11691749646516945],[-0.19547038721769233,0.06834940045521322,0.0633423767593504,0.14688297545341328,-0.12961960664453348,-0.2023500258329874],[-0.03957001128861652,-0.24967639318020432,0.17879175532285033,0.25882722091027854,-0.22512746744137285,-0.12814159171452455]]},{"inputs":[0,1,1,0,0,1],"outputs":[1,1,1,0],"biases":[-0.20988394288897602,0.27717536326532216,0.02684701198701115,0.07089610703666721],"weights":[[-0.09587093245737892,0.07848484633380443,0.013617022802073254,-0.12505948600809438],[0.3348412512899543,0.01152178031609484,0.21550561276930064,-0.24213112330848113],[0.038814872105111364,0.2886819695317932,-0.04844471366806563,-0.07030131661535509],[-0.0024853309347110525,0.054821003951742095,-0.3864042781733291,0.1455156815948078],[-0.1280406372994367,-0.21022332712782266,0.0433926513754949,0.028631841498935152],[0.12779900199223562,0.21352653269145483,0.12718523624295447,-0.055530023761356746]]}]}
